{
  "format_version": "1.14.0",
  "minecraft:geometry":  [
    {
      "bones":  [
        {
          "\u0001\u0002\u0003\u0004\u0005__": {
            "bind_pose_rotation": [0,0,0]
          },
          "name": "minecraft:geometry_root_bone",
          "parent": "",
          "pivot": [0,0,0],
          "scale": [1,1,1]
        }
      ],
      "meshes":  [
        {
          "meta_material": "mat_shared_block_player",
          "normal_sets":  [
             [
              [-2.90946458e-17, 0.00000000e+00, 1.00000000e-02, 0.00000000e+00],
              [-2.90946458e-17, 0.00000000e+00, 1.00000000e-02, 0.00000000e+00],
              [-2.78699992e-17, 0.00000000e+00, 1.00000000e-02, 0.00000000e+00],
              [-2.78699992e-17, 0.00000000e+00, 1.00000000e-02, 0.00000000e+00],
              [0,0.01,0,0],
              [0,0.01,0,0],
              [0,0.01,0,0],
              [0,0.01,0,0],
              [-2.90946458e-17, 0.00000000e+00, 1.00000000e-02, 0.00000000e+00],
              [-2.90946458e-17, 0.00000000e+00, 1.00000000e-02, 0.00000000e+00],
              [-2.90946458e-17, 0.00000000e+00, 1.00000000e-02, 0.00000000e+00],
              [-2.90946458e-17, 0.00000000e+00, 1.00000000e-02, 0.00000000e+00],
              [0,0.01,0,0],
              [0,0.01,0,0],
              [0,0.01,0,0],
              [0,0.01,0,0],
              [2.90946458e-17, 0.00000000e+00,-1.00000000e-02, 0.00000000e+00],
              [2.90946458e-17, 0.00000000e+00,-1.00000000e-02, 0.00000000e+00],
              [2.90946458e-17, 0.00000000e+00,-1.00000000e-02, 0.00000000e+00],
              [2.90946458e-17, 0.00000000e+00,-1.00000000e-02, 0.00000000e+00],
              [0, -0.01,0,0],
              [0, -0.01,0,0],
              [0, -0.01,0,0],
              [0, -0.01,0,0],
              [1.00000000e-02, 0.00000000e+00, 2.90946458e-17, 0.00000000e+00],
              [1.00000000e-02, 0.00000000e+00, 2.90946458e-17, 0.00000000e+00],
              [1.00000000e-02, 0.00000000e+00, 2.90946458e-17, 0.00000000e+00],
              [1.00000000e-02, 0.00000000e+00, 2.90946458e-17, 0.00000000e+00],
              [-1.00000000e-02, 0.00000000e+00,-2.90946458e-17, 0.00000000e+00],
              [-1.00000000e-02, 0.00000000e+00,-2.90946458e-17, 0.00000000e+00],
              [-1.00000000e-02, 0.00000000e+00,-2.90946458e-17, 0.00000000e+00],
              [-1.00000000e-02, 0.00000000e+00,-2.90946458e-17, 0.00000000e+00],
              [-2.90946458e-17, 0.00000000e+00, 1.00000000e-02, 0.00000000e+00],
              [-2.90946458e-17, 0.00000000e+00, 1.00000000e-02, 0.00000000e+00],
              [-2.90946458e-17, 0.00000000e+00, 1.00000000e-02, 0.00000000e+00],
              [-2.90946458e-17, 0.00000000e+00, 1.00000000e-02, 0.00000000e+00],
              [-2.90946458e-17, 0.00000000e+00, 1.00000000e-02, 0.00000000e+00],
              [-2.90946458e-17, 0.00000000e+00, 1.00000000e-02, 0.00000000e+00],
              [-2.90946458e-17, 0.00000000e+00, 1.00000000e-02, 0.00000000e+00],
              [-2.90946458e-17, 0.00000000e+00, 1.00000000e-02, 0.00000000e+00],
              [0, -0.01,0,0],
              [0, -0.01,0,0],
              [0, -0.01,0,0],
              [0, -0.01,0,0],
              [1.00000000e-02, 0.00000000e+00, 2.90946458e-17, 0.00000000e+00],
              [1.00000000e-02, 0.00000000e+00, 2.90946458e-17, 0.00000000e+00],
              [1.00000000e-02, 0.00000000e+00, 2.90946458e-17, 0.00000000e+00],
              [1.00000000e-02, 0.00000000e+00, 2.90946458e-17, 0.00000000e+00],
              [0,0.01,0,0],
              [0,0.01,0,0],
              [0,0.01,0,0],
              [0,0.01,0,0],
              [-1.00000000e-02, 0.00000000e+00,-2.90946458e-17, 0.00000000e+00],
              [-1.00000000e-02, 0.00000000e+00,-2.90946458e-17, 0.00000000e+00],
              [-1.00000000e-02, 0.00000000e+00,-2.90946458e-17, 0.00000000e+00],
              [-1.00000000e-02, 0.00000000e+00,-2.90946458e-17, 0.00000000e+00]
            ]
          ],
          "positions":  [
            [0.25000003814697264, 2.0127943420410155, -0.47957321166992189],
            [-0.25, 2.0127943420410155, -0.47957321166992189],
            [0.25000003814697264, 1.3005265808105468, -0.47957321166992189],
            [-0.25, 1.3005265808105468, -0.47957321166992189],
            [-0.25, 2.0127941894531252, -0.50000030517578131],
            [0.25000003814697264, 2.0127941894531252, -1.5],
            [-0.25, 2.0127941894531252, -1.5],
            [0.25000003814697264, 2.0127941894531252, -0.5],
            [0.12500004768371581, 1.1755262756347657, -0.25000045776367186],
            [-0.12500000953674317, 1.1755262756347657, -0.25000045776367186],
            [-0.12500000953674317, 0.80052597045898444, -0.25000045776367186],
            [0.12500004768371581, 0.80052597045898444, -0.25000045776367186],
            [0.25000003814697264, 1.3005265808105468, -0.5],
            [-0.25, 1.3005265808105468, -0.37500045776367186],
            [0.25000003814697264, 1.3005265808105468, -0.37500045776367186],
            [-0.25, 1.3005265808105468, -0.5],
            [0.25000003814697264, 0.67552688598632815, -0.5],
            [-0.25, 0.67552688598632815, -0.5],
            [-0.25, 1.3005265808105468, -0.5],
            [0.25000003814697264, 1.3005265808105468, -0.5],
            [0.25000003814697264, 0.67552688598632815, -0.37500045776367186],
            [-0.25, 0.67552688598632815, -0.37500045776367186],
            [-0.25, 0.67552688598632815, -0.5],
            [0.25000003814697264, 0.67552688598632815, -0.5],
            [0.25000003814697264, 0.67552688598632815, -0.5],
            [0.25000003814697264, 1.3005265808105468, -0.5],
            [0.25000003814697264, 0.67552688598632815, -0.37500045776367186],
            [0.25000003814697264, 1.3005265808105468, -0.37500045776367186],
            [-0.25, 1.3005265808105468, -0.37500045776367186],
            [-0.25, 0.67552688598632815, -0.5],
            [-0.25, 0.67552688598632815, -0.37500045776367186],
            [-0.25, 1.3005265808105468, -0.5],
            [-0.25, 0.67552688598632815, -0.37500045776367186],
            [0.25000003814697264, 0.67552688598632815, -0.37500045776367186],
            [0.12500004768371581, 0.80052597045898444, -0.37500045776367186],
            [-0.12500000953674317, 0.80052597045898444, -0.37500045776367186],
            [0.25000003814697264, 1.3005265808105468, -0.37500045776367186],
            [0.12500004768371581, 1.1755262756347657, -0.37500045776367186],
            [-0.25, 1.3005265808105468, -0.37500045776367186],
            [-0.12500000953674317, 1.1755262756347657, -0.37500045776367186],
            [0.12500004768371581, 0.80052597045898444, -0.25000045776367186],
            [-0.12500000953674317, 0.80052597045898444, -0.25000045776367186],
            [-0.12500000953674317, 0.80052597045898444, -0.37500045776367186],
            [0.12500004768371581, 0.80052597045898444, -0.37500045776367186],
            [0.12500004768371581, 1.1755262756347657, -0.25000045776367186],
            [0.12500004768371581, 0.80052597045898444, -0.25000045776367186],
            [0.12500004768371581, 0.80052597045898444, -0.37500045776367186],
            [0.12500004768371581, 1.1755262756347657, -0.37500045776367186],
            [-0.12500000953674317, 1.1755262756347657, -0.25000045776367186],
            [0.12500004768371581, 1.1755262756347657, -0.25000045776367186],
            [0.12500004768371581, 1.1755262756347657, -0.37500045776367186],
            [-0.12500000953674317, 1.1755262756347657, -0.37500045776367186],
            [-0.12500000953674317, 0.80052597045898444, -0.25000045776367186],
            [-0.12500000953674317, 1.1755262756347657, -0.25000045776367186],
            [-0.12500000953674317, 1.1755262756347657, -0.37500045776367186],
            [-0.12500000953674317, 0.80052597045898444, -0.37500045776367186]
          ],
          "triangles": [0,1,2,1,3,2,4,5,6,5,4,7,8,9,10,8,10,11,12,13,14,13,12,15,16,17,18,16,18,19,20,21,22,20,22,23,24,25,26,27,26,25,28,29,30,29,28,31,32,33,34,32,34,35,33,36,37,33,37,34,36,38,39,36,39,37,32,39,38,39,32,35,40,41,42,40,42,43,44,45,46,44,46,47,48,49,50,48,50,51,52,53,54,52,54,55],
          "uv_sets":  [
             [
              [0.27734375, 0.060545921325683594],
              [0.27734375, 0.07617080211639404],
              [0.29960206151008606, 0.060546278953552246],
              [0.29960206151008606, 0.07617127895355225],
              [0.30859375, 0.07617080211639404],
              [0.27734375, 0.060545921325683594],
              [0.27734375, 0.07617080211639404],
              [0.30859375, 0.060545921325683594],
              [0.34375, 0.12109375],
              [0.3359375, 0.12109375],
              [0.3359375, 0.1328125],
              [0.34375, 0.1328125],
              [0.38671875, 0.12890625],
              [0.37109375, 0.1328125],
              [0.38671875, 0.1328125],
              [0.37109375, 0.12890625],
              [0.33203125, 0.12109375],
              [0.31640625, 0.12109375],
              [0.31640625, 0.140625],
              [0.33203125, 0.140625],
              [0.38671875, 0.12109375],
              [0.37109375, 0.12109375],
              [0.37109375, 0.125],
              [0.38671875, 0.125],
              [0.359375, 0.140625],
              [0.359375, 0.12109375],
              [0.35546875, 0.140625],
              [0.35546875, 0.12109375],
              [0.3671875, 0.12109375],
              [0.36328125, 0.140625],
              [0.3671875, 0.140625],
              [0.36328125, 0.12109375],
              [0.31640625, 0.140625],
              [0.33203125, 0.140625],
              [0.328125, 0.13671875],
              [0.3203125, 0.13671875],
              [0.33203125, 0.12109375],
              [0.328125, 0.125],
              [0.31640625, 0.12109375],
              [0.3203125, 0.125],
              [0.34375, 0.13671875],
              [0.3359375, 0.13671875],
              [0.3359375, 0.140625],
              [0.34375, 0.140625],
              [0.328125, 0.14453125],
              [0.31640625, 0.14453125],
              [0.31640625, 0.1484375],
              [0.328125, 0.1484375],
              [0.3359375, 0.140625],
              [0.34375, 0.140625],
              [0.34375, 0.13671875],
              [0.3359375, 0.13671875],
              [0.31640625, 0.1484375],
              [0.328125, 0.1484375],
              [0.328125, 0.14453125],
              [0.31640625, 0.14453125]
            ]
          ],
          "weights":  [
            [1],
            [1],
            [1],
            [1],
            [1],
            [1],
            [1],
            [1],
            [1],
            [1],
            [1],
            [1],
            [1],
            [1],
            [1],
            [1],
            [1],
            [1],
            [1],
            [1],
            [1],
            [1],
            [1],
            [1],
            [1],
            [1],
            [1],
            [1],
            [1],
            [1],
            [1],
            [1],
            [1],
            [1],
            [1],
            [1],
            [1],
            [1],
            [1],
            [1],
            [1],
            [1],
            [1],
            [1],
            [1],
            [1],
            [1],
            [1],
            [1],
            [1],
            [1],
            [1],
            [1],
            [1],
            [1],
            [1]
          ]
        }
      ],
      "description": {
        "identifier": "geometry.block_deco_redstone_button"
      }
    }
  ]
}
