{
  "format_version": "1.14.0",
  "minecraft:geometry":  [
    {
      "bones":  [
        {
          "\u0001\u0002\u0003\u0004\u0005__": {
            "bind_pose_rotation": [0,0,0]
          },
          "name": "minecraft:geometry_root_bone",
          "parent": "",
          "pivot": [0,0,0],
          "scale": [1,1,1]
        }
      ],
      "meshes":  [
        {
          "color_sets":  [
             [
              [0.0, 0.0, 0.0, 1.0],
              [0.0, 0.0, 0.0, 1.0],
              [0.0, 0.0, 0.0, 1.0],
              [0.0, 0.0, 0.0, 1.0],
              [0.0, 0.0, 0.0, 1.0],
              [0.0, 0.0, 0.0, 1.0],
              [0.0, 0.0, 0.0, 1.0],
              [0.0, 0.0, 0.0, 1.0],
              [0.0, 0.0, 0.0, 1.0],
              [0.0, 0.0, 0.0, 1.0],
              [0.0, 0.0, 0.0, 1.0],
              [0.0, 0.0, 0.0, 1.0],
              [0.0, 0.0, 0.0, 1.0],
              [0.0, 0.0, 0.0, 1.0],
              [0.0, 0.0, 0.0, 1.0],
              [0.0, 0.0, 0.0, 1.0],
              [0.0, 0.0, 0.0, 1.0],
              [0.0, 0.0, 0.0, 1.0],
              [0.0, 0.0, 0.0, 1.0],
              [0.0, 0.0, 0.0, 1.0],
              [0.0, 0.0, 0.0, 1.0],
              [0.0, 0.0, 0.0, 1.0],
              [0.0, 0.0, 0.0, 1.0],
              [0.0, 0.0, 0.0, 1.0],
              [0.07609999924898148, 0.07609999924898148, 0.07609999924898148, 1.0],
              [0.07609999924898148, 0.07609999924898148, 0.07609999924898148, 1.0],
              [0.03620000183582306, 0.03620000183582306, 0.03620000183582306, 1.0],
              [0.03620000183582306, 0.03620000183582306, 0.03620000183582306, 1.0],
              [0.07609999924898148, 0.07609999924898148, 0.07609999924898148, 1.0],
              [0.07609999924898148, 0.07609999924898148, 0.07609999924898148, 1.0],
              [0.11590000241994858, 0.11590000241994858, 0.11590000241994858, 1.0],
              [0.11590000241994858, 0.11590000241994858, 0.11590000241994858, 1.0],
              [0.14489999413490295, 0.14489999413490295, 0.14489999413490295, 1.0],
              [0.14489999413490295, 0.14489999413490295, 0.14489999413490295, 1.0],
              [0.11590000241994858, 0.11590000241994858, 0.11590000241994858, 1.0],
              [0.11590000241994858, 0.11590000241994858, 0.11590000241994858, 1.0],
              [0.14489999413490295, 0.14489999413490295, 0.14489999413490295, 1.0],
              [0.14489999413490295, 0.14489999413490295, 0.14489999413490295, 1.0],
              [0.27900001406669617, 0.27900001406669617, 0.27900001406669617, 1.0],
              [0.27900001406669617, 0.27900001406669617, 0.27900001406669617, 1.0],
              [0.5, 0.5, 0.5, 1.0],
              [0.5, 0.5, 0.5, 1.0],
              [0.27900001406669617, 0.27900001406669617, 0.27900001406669617, 1.0],
              [0.27900001406669617, 0.27900001406669617, 0.27900001406669617, 1.0],
              [0.5, 0.5, 0.5, 1.0],
              [0.5, 0.5, 0.5, 1.0],
              [0.5724999904632568, 0.5724999904632568, 0.5724999904632568, 1.0],
              [0.5724999904632568, 0.5724999904632568, 0.5724999904632568, 1.0],
              [0.5724999904632568, 0.5724999904632568, 0.5724999904632568, 1.0],
              [0.5724999904632568, 0.5724999904632568, 0.5724999904632568, 1.0],
              [0.7789999842643738, 0.7789999842643738, 0.7789999842643738, 1.0],
              [0.7789999842643738, 0.7789999842643738, 0.7789999842643738, 1.0],
              [0.9348000288009644, 0.9348000288009644, 0.9348000288009644, 1.0],
              [0.9348000288009644, 0.9348000288009644, 0.9348000288009644, 1.0],
              [0.7789999842643738, 0.7789999842643738, 0.7789999842643738, 1.0],
              [0.7789999842643738, 0.7789999842643738, 0.7789999842643738, 1.0],
              [0.9348000288009644, 0.9348000288009644, 0.9348000288009644, 1.0],
              [0.9348000288009644, 0.9348000288009644, 0.9348000288009644, 1.0],
              [1.0, 1.0, 1.0, 1.0],
              [1.0, 1.0, 1.0, 1.0],
              [0.0, 0.0, 0.0, 1.0],
              [0.0, 0.0, 0.0, 1.0],
              [0.0, 0.0, 0.0, 1.0],
              [0.0, 0.0, 0.0, 1.0],
              [0.03620000183582306, 0.03620000183582306, 0.03620000183582306, 1.0],
              [0.03620000183582306, 0.03620000183582306, 0.03620000183582306, 1.0],
              [1.0, 1.0, 1.0, 1.0],
              [1.0, 1.0, 1.0, 1.0]
            ]
          ],
          "meta_material": "mat_shared_block_player_cloth",
          "normal_sets":  [
             [
              [0,0, -0.01,0],
              [0,0, -0.01,0],
              [0,0, -0.01,0],
              [0,0, -0.01,0],
              [0,0.01,0,0],
              [0,0.01,0,0],
              [0,0.01,0,0],
              [0,0.01,0,0],
              [0,0,0.01,0],
              [0,0,0.01,0],
              [0,0,0.01,0],
              [0,0,0.01,0],
              [0, -0.01,0,0],
              [0, -0.01,0,0],
              [0, -0.01,0,0],
              [0, -0.01,0,0],
              [0.01,0,0,0],
              [0.01,0,0,0],
              [0.01,0,0,0],
              [0.01,0,0,0],
              [-0.01,0,0,0],
              [-0.01,0,0,0],
              [-0.01,0,0,0],
              [-0.01,0,0,0],
              [0,0, -0.01,0],
              [0,0, -0.01,0],
              [1.22464685e-18, 0.00000000e+00,-1.00000000e-02, 0.00000000e+00],
              [1.22464685e-18, 0.00000000e+00,-1.00000000e-02, 0.00000000e+00],
              [0,0,0.01,0],
              [0,0,0.01,0],
              [-1.22464685e-18, 0.00000000e+00, 1.00000000e-02, 0.00000000e+00],
              [-1.22464685e-18, 0.00000000e+00, 1.00000000e-02, 0.00000000e+00],
              [0,0, -0.01,0],
              [0,0, -0.01,0],
              [1.22464685e-18, 0.00000000e+00,-1.00000000e-02, 0.00000000e+00],
              [1.22464685e-18, 0.00000000e+00,-1.00000000e-02, 0.00000000e+00],
              [0,0,0.01,0],
              [0,0,0.01,0],
              [-1.22464685e-18, 0.00000000e+00, 1.00000000e-02, 0.00000000e+00],
              [-1.22464685e-18, 0.00000000e+00, 1.00000000e-02, 0.00000000e+00],
              [1.22464685e-18, 0.00000000e+00,-1.00000000e-02, 0.00000000e+00],
              [1.22464685e-18, 0.00000000e+00,-1.00000000e-02, 0.00000000e+00],
              [1.22464685e-18, 0.00000000e+00,-1.00000000e-02, 0.00000000e+00],
              [1.22464685e-18, 0.00000000e+00,-1.00000000e-02, 0.00000000e+00],
              [-1.22464685e-18, 0.00000000e+00, 1.00000000e-02, 0.00000000e+00],
              [-1.22464685e-18, 0.00000000e+00, 1.00000000e-02, 0.00000000e+00],
              [0,0, -0.01,0],
              [0,0, -0.01,0],
              [0,0,0.01,0],
              [0,0,0.01,0],
              [-1.22464685e-18, 0.00000000e+00, 1.00000000e-02, 0.00000000e+00],
              [-1.22464685e-18, 0.00000000e+00, 1.00000000e-02, 0.00000000e+00],
              [0,0, -0.01,0],
              [0,0, -0.01,0],
              [1.22464685e-18, 0.00000000e+00,-1.00000000e-02, 0.00000000e+00],
              [1.22464685e-18, 0.00000000e+00,-1.00000000e-02, 0.00000000e+00],
              [0,0,0.01,0],
              [0,0,0.01,0],
              [-1.22464685e-18, 0.00000000e+00, 1.00000000e-02, 0.00000000e+00],
              [-1.22464685e-18, 0.00000000e+00, 1.00000000e-02, 0.00000000e+00],
              [0,0, -0.01,0],
              [0,0, -0.01,0],
              [0,0,0.01,0],
              [0,0,0.01,0],
              [0,0,0.01,0],
              [0,0,0.01,0],
              [1.22464685e-18, 0.00000000e+00,-1.00000000e-02, 0.00000000e+00],
              [1.22464685e-18, 0.00000000e+00,-1.00000000e-02, 0.00000000e+00]
            ]
          ],
          "positions":  [
            [-0.6875, 1.0, -0.5],
            [0.6875, 1.0, -0.5],
            [-0.6875, 0.75, -0.5],
            [0.6875, 0.75, -0.5],
            [0.6875, 1.0, -0.375],
            [-0.6875, 1.0, -0.5],
            [-0.6875, 1.0, -0.375],
            [0.6875, 1.0, -0.5],
            [-0.6875, 0.75, -0.375],
            [0.6875, 0.75, -0.375],
            [-0.6875, 1.0, -0.375],
            [0.6875, 1.0, -0.375],
            [-0.6875, 0.75, -0.5],
            [0.6875, 0.75, -0.5],
            [-0.6875, 0.75, -0.375],
            [0.6875, 0.75, -0.375],
            [0.6875, 1.0, -0.375],
            [0.6875, 0.75, -0.375],
            [0.6875, 0.75, -0.5],
            [0.6875, 1.0, -0.5],
            [-0.6875, 0.75, -0.375],
            [-0.6875, 1.0, -0.375],
            [-0.6875, 1.0, -0.5],
            [-0.6875, 0.75, -0.5],
            [0.625, 0.25000007629394527, -0.4375],
            [-0.625, 0.25000007629394527, -0.4375],
            [-0.625, 0.5, -0.4375],
            [0.625, 0.5, -0.4375],
            [0.625, 0.24999992370605462, -0.375],
            [-0.625, 0.24999992370605462, -0.375],
            [-0.625, 0.0, -0.375],
            [0.625, 0.0, -0.375],
            [0.625, -0.25, -0.4375],
            [-0.625, -0.25, -0.4375],
            [-0.625, 0.0, -0.4375],
            [0.625, 0.0, -0.4375],
            [0.625, -0.25, -0.375],
            [-0.625, -0.25, -0.375],
            [-0.625, -0.5, -0.375],
            [0.625, -0.5, -0.375],
            [0.625, -0.75, -0.4375],
            [-0.625, -0.75, -0.4375],
            [-0.625, -0.5, -0.4375],
            [0.625, -0.5, -0.4375],
            [-0.625, -0.75, -0.375],
            [0.625, -0.75, -0.375],
            [0.625, -1.0, -0.4375],
            [-0.625, -1.0, -0.4375],
            [0.625, -1.0, -0.375],
            [-0.625, -1.0, -0.375],
            [-0.625, -1.25, -0.375],
            [0.625, -1.25, -0.375],
            [0.625, -1.4999998474121092, -0.4375],
            [-0.625, -1.4999998474121092, -0.4375],
            [-0.625, -1.25, -0.4375],
            [0.625, -1.25, -0.4375],
            [0.625, -1.5000001525878908, -0.375],
            [-0.625, -1.5000001525878908, -0.375],
            [-0.625, -1.625, -0.375],
            [0.625, -1.625, -0.375],
            [-0.625, 0.75, -0.4375],
            [0.625, 0.75, -0.4375],
            [0.625, 0.75, -0.375],
            [-0.625, 0.75, -0.375],
            [-0.625, 0.5, -0.375],
            [0.625, 0.5, -0.375],
            [0.625, -1.625, -0.4375],
            [-0.625, -1.625, -0.4375]
          ],
          "triangles": [0,1,2,3,2,1,4,5,6,5,4,7,8,9,10,11,10,9,12,13,14,15,14,13,16,17,18,16,18,19,20,21,22,20,22,23,24,25,26,24,26,27,28,29,30,28,30,31,32,33,34,32,34,35,36,37,38,36,38,39,40,41,42,40,42,43,39,38,44,39,44,45,46,47,41,46,41,40,48,49,50,48,50,51,52,53,54,52,54,55,56,57,58,56,58,59,27,26,60,27,60,61,62,63,64,62,64,65,29,65,64,65,29,28,25,35,34,35,25,24,31,30,37,31,37,36,43,42,33,43,33,32,45,44,49,45,49,48,55,54,47,55,47,46,51,50,57,51,57,56,53,66,67,66,53,52],
          "uv_sets":  [
             [
              [0.47070786356925964, 0.3984367847442627],
              [0.47070786356925964, 0.4414217472076416],
              [0.4628998041152954, 0.3984367847442627],
              [0.46289536356925964, 0.4414217472076416],
              [0.4511721134185791, 0.4414217472076416],
              [0.44726133346557617, 0.3984367847442627],
              [0.4511721134185791, 0.3984367847442627],
              [0.4472702443599701, 0.4414217472076416],
              [0.4589845836162567, 0.3984367847442627],
              [0.4589845836162567, 0.4414217472076416],
              [0.4511721134185791, 0.3984367847442627],
              [0.4511721134185791, 0.4414217472076416],
              [0.4628998041152954, 0.3984367847442627],
              [0.46289536356925964, 0.4414217472076416],
              [0.4589845836162567, 0.3984367847442627],
              [0.4589845836162567, 0.4414217472076416],
              [0.4511721134185791, 0.4414217472076416],
              [0.4589845836162567, 0.4414217472076416],
              [0.4589845836162567, 0.44531166553497314],
              [0.4511721134185791, 0.44531166553497314],
              [0.4589845836162567, 0.3984367847442627],
              [0.4511721134185791, 0.3984367847442627],
              [0.4511721134185791, 0.39453041553497314],
              [0.4589845836162567, 0.39453041553497314],
              [0.4042971432209015, 0.4121088981628418],
              [0.4433596730232239, 0.4121081829071045],
              [0.44335949420928955, 0.40429556369781494],
              [0.40429699420928955, 0.40429651737213135],
              [0.4003908336162567, 0.4121081829071045],
              [0.3613283336162567, 0.4121081829071045],
              [0.3613283634185791, 0.41992056369781494],
              [0.4003908634185791, 0.41992056369781494],
              [0.40429726243019104, 0.42773377895355225],
              [0.4433597922325134, 0.42773354053497314],
              [0.4433597922325134, 0.41992080211639404],
              [0.4042972922325134, 0.41992127895355225],
              [0.4003908038139343, 0.42773330211639404],
              [0.3613283336162567, 0.42773330211639404],
              [0.3613283038139343, 0.4355459213256836],
              [0.40039077401161194, 0.4355459213256836],
              [0.4042972922325134, 0.44335854053497314],
              [0.4433598816394806, 0.4433584213256836],
              [0.4433598220348358, 0.43554604053497314],
              [0.40429726243019104, 0.43554604053497314],
              [0.36132827401161194, 0.44335854053497314],
              [0.40039077401161194, 0.44335854053497314],
              [0.4042973220348358, 0.45117104053497314],
              [0.4433598816394806, 0.4511709213256836],
              [0.40039077401161194, 0.45117104053497314],
              [0.3613283038139343, 0.45117104053497314],
              [0.36132827401161194, 0.4589836597442627],
              [0.40039077401161194, 0.4589836597442627],
              [0.40429723262786865, 0.46679604053497314],
              [0.4433598816394806, 0.4667959213256836],
              [0.4433598816394806, 0.45898330211639404],
              [0.4042972922325134, 0.4589834213256836],
              [0.4003908038139343, 0.4667961597442627],
              [0.36132827401161194, 0.4667961597442627],
              [0.36132827401161194, 0.47070229053497314],
              [0.40039077401161194, 0.47070229053497314],
              [0.44335928559303284, 0.3964829444885254],
              [0.40429678559303284, 0.396484375],
              [0.40039077401161194, 0.39648354053497314],
              [0.36132827401161194, 0.39648354053497314],
              [0.3613283038139343, 0.40429580211639404],
              [0.4003908038139343, 0.40429580211639404],
              [0.40429723262786865, 0.4707024097442627],
              [0.4433598816394806, 0.4707021713256836]
            ]
          ],
          "weights":  [
            [1],
            [1],
            [1],
            [1],
            [1],
            [1],
            [1],
            [1],
            [1],
            [1],
            [1],
            [1],
            [1],
            [1],
            [1],
            [1],
            [1],
            [1],
            [1],
            [1],
            [1],
            [1],
            [1],
            [1],
            [1],
            [1],
            [1],
            [1],
            [1],
            [1],
            [1],
            [1],
            [1],
            [1],
            [1],
            [1],
            [1],
            [1],
            [1],
            [1],
            [1],
            [1],
            [1],
            [1],
            [1],
            [1],
            [1],
            [1],
            [1],
            [1],
            [1],
            [1],
            [1],
            [1],
            [1],
            [1],
            [1],
            [1],
            [1],
            [1],
            [1],
            [1],
            [1],
            [1],
            [1],
            [1],
            [1],
            [1]
          ]
        }
      ],
      "description": {
        "identifier": "geometry.block_deco_banner_crowsnest"
      }
    }
  ]
}
